#ifndef MODEL_INT8_H
#define MODEL_INT8_H
/** Auto-generated by export_mcu.py **/
#include <stdint.h>

#define LSTM_L   1
#define LSTM_F   2
#define LSTM_H   16
#define LSTM_4H  64
#define WIN_SIZE 64

#define S_GATE_Q8   32
#define S_TANHC_Q8  64
#define FX_SHIFT   24
#define C_CLIP 8.00000000f
static const int32_t FX_M_IH[1] = { 30055 };
static const int32_t FX_M_HH[1] = { 7421 };
static const float MU_X[2]={ 0.88112164f, 58.65823746f };
static const float STD_X[2]={ 5.81950808f, 14.43760872f };
static const float MU_Y=58.29375839f;
static const float STD_Y=19.51471138f;

static const int8_t IH_W_Q8[128] = { -20, -25, -14, 29, -6, 21, 90, 18, 39, -46, -40, -19, 46, 7, 33, -19, -24, -6, -61, -13, -42, 38, -16, 23, 127, -46, 8, -13, -11, 13, 8, -2, -16, 39, 44, -36, -71, -12, -6, -56, 104, 25, 39, 4, -12, 30, 27, 29, 41, 31, -65, -54, 21, -37, 11, 55, -54, -32, -38, 39, -55, -42, 3, 12, 14, 55, 20, -2, -28, 27, 19, 34, 72, -37, 27, -24, -19, -27, 5, 46, -2, 11, 3, -9, 11, -17, -38, 70, -6, -26, 17, 21, 12, 38, -8, -20, 26, 41, 64, 13, -18, 25, -16, 1, 61, -31, -13, -11, 27, -14, 22, -23, 39, 28, -56, 28, -18, 48, -4, 7, -10, -18, 9, 25, -24, 0, 13, -25 };
static const int8_t HH_W_Q8[1024] = { 28, 24, -8, 3, -11, 1, -35, 37, 14, -2, 11, -8, -11, 27, -31, -10, 3, 12, -33, 7, -36, 0, 25, 13, 37, -47, 23, -10, 33, 18, -31, 29, 8, 25, 18, 37, -9, -12, -55, 18, 7, -14, -56, -16, -1, -4, -18, 51, 48, 9, -51, 9, -39, 58, -39, -12, 18, 62, 6, -21, 32, 27, 9, -40, 33, -12, -45, -35, -58, 17, -26, -8, -52, 46, 25, 32, 46, 12, 22, -38, 68, -15, -16, 25, 39, -23, 0, -80, 5, -26, -20, -28, -10, -8, -17, 76, -4, 1, -101, -57, -15, 53, -37, 11, -45, 26, 63, -37, 85, -34, -61, 26, 15, -3, -17, -19, 21, 14, -28, -28, 24, -4, 36, -14, 45, 26, -20, 27, 10, 15, -13, -17, -22, -9, -1, -25, 16, -16, 6, -37, 26, -3, -47, 22, 64, 33, 65, 29, 38, -75, 52, 31, 30, -33, -52, 32, -17, 36, 15, 37, 53, 19, -30, 19, 15, 20, -28, 5, 4, -24, 0, -30, -19, -37, -22, 17, 42, -84, -2, -40, 40, -37, 58, 2, 3, 30, -33, -77, 58, 31, 18, 48, 52, 17, 11, 70, 127, 37, -82, -53, 27, 122, 54, -36, 6, -37, -26, -46, 50, 106, -8, 16, 7, -21, -65, -29, 10, 1, 44, -30, 0, -28, -58, 23, 100, 73, -35, 23, 102, -10, -52, 16, 56, 70, 8, -15, 22, -35, -60, 23, 61, 33, 52, 28, 8, -6, -26, -17, -1, 22, -11, -32, 45, -12, -44, -44, 27, 41, 16, 43, 33, -6, -78, 46, 1, 36, -6, -43, 24, 16, 26, -9, 65, 34, 12, -12, -2, -45, -21, 4, 49, -4, -45, -66, 8, 44, 5, -20, 41, 27, 37, 16, 32, -29, -59, -6, 13, -20, -46, -13, 22, -7, -11, 40, 53, 8, 8, 45, 2, -8, -79, 33, 22, 103, -19, -57, -4, 17, -11, -35, 17, -40, -58, -64, -41, -27, -11, 27, 7, 53, -2, 22, 46, 26, 21, -30, 69, 0, 8, 82, 27, -23, -58, -51, 17, -67, -26, -5, -60, 45, 24, 17, 31, 62, -35, -2, 42, -53, -94, 67, 49, 25, -29, -13, 11, 40, 15, -14, 12, 18, -6, 16, -9, -5, 17, -29, 45, -52, -24, -14, 26, 31, -8, -21, 29, 34, 5, -23, 15, -5, -2, -4, 21, 29, -15, -57, 0, -1, 9, 10, 1, 16, 7, 17, 57, -70, 82, 16, 28, -46, 4, 29, -15, 23, -25, 85, 63, 24, 13, 23, 40, -40, -5, 33, 22, 16, -21, -70, 5, 10, -6, -4, 94, -50, -16, -46, 27, -6, 49, -11, -56, 85, -22, -71, 26, -11, -34, 33, 12, 23, 36, 8, 45, 9, -81, -13, -25, -9, -32, 3, -64, -78, 14, 17, 35, 67, 4, 45, 9, -45, -77, 20, 26, -74, -31, -40, -38, -16, -26, 23, 35, 22, -12, 42, 96, -16, -27, 25, 63, 63, -40, -4, -31, -7, -6, -14, 29, -23, 39, 16, 33, -31, -21, 3, 33, 57, -62, -39, 42, 6, -47, -64, -44, 10, -10, -2, 35, -7, -28, 24, -8, -9, 9, 42, -15, -32, 3, 3, 19, 35, -7, 38, 11, 18, 63, -12, 22, -25, 15, 31, -30, -7, 6, 34, 4, 64, -20, 62, 44, 15, -45, -7, 37, 3, 9, -56, -58, -34, 17, -7, 10, 3, 38, -9, 57, 17, -1, -30, -21, 60, 11, -24, 4, -18, 50, 14, 40, 29, 18, 76, 111, 60, -16, -17, 33, 58, -4, 46, -90, -58, 36, -16, 40, -57, 50, -66, -11, -44, 58, 4, -17, 84, -7, 9, 51, -17, -14, 44, -4, -31, 4, -6, 13, -23, 43, 33, -5, 40, -34, -71, -27, -2, 36, -1, -18, 24, -20, 19, 22, 16, 12, -43, -3, -35, 1, 24, 34, -16, -23, -31, 11, 27, 42, 46, -27, -19, -23, -62, 42, -34, 13, 0, -31, -26, 14, -5, 18, 1, 43, -17, 7, 55, -87, -35, -7, 45, -13, 19, 42, -48, -45, -21, 2, -48, 7, -10, -12, -6, 30, 34, 18, 71, -15, 15, 49, -15, -17, 3, -21, -32, 20, -22, -9, -35, 111, 21, -16, 7, -30, 46, -15, 28, 43, -8, -20, 0, -29, -25, -24, 4, 22, 34, 18, -31, 31, 32, -16, 5, -5, -43, -35, 26, -12, -32, -29, -11, 6, -9, 37, -71, -10, -6, 23, -32, -34, -18, 18, 27, 0, 27, 9, 6, -39, -28, -35, -54, -20, -31, 10, 7, -15, 38, 13, -53, 15, -5, -7, -23, 31, 54, -52, -10, 11, 10, -23, 7, -37, 1, 38, 36, 20, 1, 12, -7, 4, 1, 20, 29, -21, -75, 60, -6, -46, -17, 21, 2, -61, 7, -20, 1, -34, -19, -26, 37, 24, -73, 29, 50, -43, 1, 72, 51, 46, 23, 26, -23, -68, -26, 43, -3, -17, -60, -5, -21, -30, 52, 39, 48, -15, 41, 28, 31, -32, 23, 68, 84, -27, -24, -15, 9, 5, -36, 54, -3, -43, -24, -23, -16, -55, 11, 24, 70, -36, 5, 54, 27, 42, -40, 86, 42, 2, 65, 39, -42, -55, 18, -10, -39, -57, -48, -36, 50, 8, 48, 73, 55, 12, 44, -3, -45, -123, 1, 39, 48, -20, -35, -5, 19, -12, -13, 46, 21, 40, -9, 39, -39, -90, 1, 30, 9, -67, -66, -31, 35, -20, -16, 61, -17, 19, -19, 10, 5, -31, -14, -15, 44, -46, -71, 37, 47, 15, 47, 43, -20, 57, 28, 61, -48, 123, -8, -19, -26, -5, 9, -15, 23, -11, 51, 52, 10, 17, 12, 22, -16, -41, 6, 0, 54, -10, -64, -13, 14, 14, 15, 78, -94, -25, -35, 5, -51, 55, -17, -18, 39, -62, -15, 26, 11, -32, 39, 73, 20, 38, 60, 87, -32, -5, -18, 81, -34, -80, -34, -26, -18, -17, -10, 15, 9, -3, -28, 22, -14, -47, -12, 46, -46, -2, -28, 39, 8, -46, 42, 73, 33, -3, 31, 60, -1, -45, -5, 18, 53, -12, -28, -18, 6, -37, -30, 36, 2, 22, 4, 3, -24, -71, -20, 30, -28, -70, 2, 35, 77, 2, 7 };
static const int32_t B_Q8[64] = { -4, 5, 8, -7, -1, 2, -6, -7, -2, -2, -4, -3, -2, 2, -2, 4, -6, 2, 1, 6, 1, -4, 3, 5, 3, 1, 4, 5, 10, -3, 3, 8, -3, -5, 1, -2, 2, -1, 3, -1, 0, 0, 0, -1, 0, 0, 0, 0, -4, -1, 6, 4, 2, 2, -1, 1, -1, 6, 4, 7, 9, 7, 7, 3 };
static const int16_t LUT_SIG_GATE_Q8[255] = { 0, 0, 0, 0, 0, 0, 0, 0, 0, 0, 0, 0, 0, 0, 0, 0, 0, 0, 0, 0, 0, 0, 0, 0, 0, 0, 0, 0, 0, 0, 0, 0, 0, 0, 0, 0, 0, 0, 0, 0, 0, 0, 0, 0, 0, 0, 0, 0, 0, 0, 0, 0, 0, 0, 0, 0, 0, 0, 0, 0, 0, 0, 0, 0, 0, 0, 0, 0, 0, 0, 0, 0, 0, 0, 0, 0, 0, 0, 1, 1, 1, 1, 1, 1, 1, 1, 2, 2, 2, 2, 2, 3, 3, 4, 4, 5, 5, 6, 7, 8, 8, 10, 11, 12, 14, 15, 17, 19, 22, 24, 27, 31, 34, 38, 42, 47, 52, 57, 63, 69, 75, 82, 89, 97, 104, 112, 120, 128, 136, 144, 152, 159, 167, 174, 181, 187, 193, 199, 204, 209, 214, 218, 222, 225, 229, 232, 234, 237, 239, 241, 242, 244, 245, 246, 248, 248, 249, 250, 251, 251, 252, 252, 253, 253, 254, 254, 254, 254, 254, 255, 255, 255, 255, 255, 255, 255, 255, 256, 256, 256, 256, 256, 256, 256, 256, 256, 256, 256, 256, 256, 256, 256, 256, 256, 256, 256, 256, 256, 256, 256, 256, 256, 256, 256, 256, 256, 256, 256, 256, 256, 256, 256, 256, 256, 256, 256, 256, 256, 256, 256, 256, 256, 256, 256, 256, 256, 256, 256, 256, 256, 256, 256, 256, 256, 256, 256, 256, 256, 256, 256, 256, 256, 256, 256, 256, 256, 256, 256, 256, 256, 256, 256, 256, 256, 256 };
static const int16_t LUT_TANH_GATE_Q8[255] = { -256, -256, -256, -256, -256, -256, -256, -256, -256, -256, -256, -256, -256, -256, -256, -256, -256, -256, -256, -256, -256, -256, -256, -256, -256, -256, -256, -256, -256, -256, -256, -256, -256, -256, -256, -256, -256, -256, -256, -256, -256, -256, -256, -256, -256, -256, -256, -256, -256, -256, -256, -256, -256, -256, -256, -256, -256, -256, -256, -256, -256, -256, -256, -256, -256, -256, -256, -256, -256, -256, -256, -256, -256, -256, -256, -256, -256, -256, -256, -256, -256, -256, -256, -256, -256, -256, -256, -256, -256, -256, -256, -256, -256, -256, -256, -256, -256, -256, -256, -256, -255, -255, -255, -255, -254, -254, -253, -253, -252, -250, -249, -247, -244, -241, -237, -232, -225, -217, -207, -195, -180, -163, -142, -118, -92, -63, -32, 0, 32, 63, 92, 118, 142, 163, 180, 195, 207, 217, 225, 232, 237, 241, 244, 247, 249, 250, 252, 253, 253, 254, 254, 255, 255, 255, 255, 256, 256, 256, 256, 256, 256, 256, 256, 256, 256, 256, 256, 256, 256, 256, 256, 256, 256, 256, 256, 256, 256, 256, 256, 256, 256, 256, 256, 256, 256, 256, 256, 256, 256, 256, 256, 256, 256, 256, 256, 256, 256, 256, 256, 256, 256, 256, 256, 256, 256, 256, 256, 256, 256, 256, 256, 256, 256, 256, 256, 256, 256, 256, 256, 256, 256, 256, 256, 256, 256, 256, 256, 256, 256, 256, 256, 256, 256, 256, 256, 256, 256, 256, 256, 256, 256, 256, 256, 256, 256, 256, 256, 256, 256, 256, 256, 256, 256, 256, 256 };
static const int16_t LUT_TANH_C_Q8[255] = { -256, -256, -256, -256, -256, -256, -256, -256, -256, -256, -256, -256, -256, -256, -256, -256, -256, -256, -256, -256, -256, -256, -256, -256, -256, -256, -256, -256, -256, -256, -256, -256, -256, -256, -256, -256, -256, -256, -256, -256, -256, -256, -256, -256, -256, -256, -256, -256, -256, -256, -256, -256, -256, -256, -256, -256, -256, -256, -256, -256, -256, -256, -256, -256, -256, -256, -256, -256, -256, -256, -256, -256, -256, -256, -256, -256, -256, -256, -256, -256, -256, -256, -256, -256, -256, -256, -256, -256, -256, -256, -256, -256, -256, -256, -256, -256, -256, -256, -256, -256, -256, -256, -256, -256, -256, -256, -256, -256, -256, -256, -256, -256, -256, -256, -255, -255, -254, -253, -250, -247, -241, -232, -217, -195, -163, -118, -63, 0, 63, 118, 163, 195, 217, 232, 241, 247, 250, 253, 254, 255, 255, 256, 256, 256, 256, 256, 256, 256, 256, 256, 256, 256, 256, 256, 256, 256, 256, 256, 256, 256, 256, 256, 256, 256, 256, 256, 256, 256, 256, 256, 256, 256, 256, 256, 256, 256, 256, 256, 256, 256, 256, 256, 256, 256, 256, 256, 256, 256, 256, 256, 256, 256, 256, 256, 256, 256, 256, 256, 256, 256, 256, 256, 256, 256, 256, 256, 256, 256, 256, 256, 256, 256, 256, 256, 256, 256, 256, 256, 256, 256, 256, 256, 256, 256, 256, 256, 256, 256, 256, 256, 256, 256, 256, 256, 256, 256, 256, 256, 256, 256, 256, 256, 256, 256, 256, 256, 256, 256, 256, 256, 256, 256, 256, 256, 256 };
static const float FC_W[32] = { 0.2213464379310608, 0.06528200954198837, 0.12649770081043243, 0.10288985818624496, 0.07611709833145142, -0.1597728580236435, -0.18793627619743347, 0.15315325558185577, 0.179262176156044, -0.24611355364322662, -0.20116327702999115, 0.05340220779180527, -0.11887393146753311, 0.2525031268596649, 0.15013399720191956, -0.10568835586309433, 0.21942998468875885, 0.06595408916473389, 0.14364095032215118, 0.1277845948934555, 0.09637553244829178, -0.16982939839363098, -0.1825825572013855, 0.15298615396022797, 0.1968882977962494, -0.2348974347114563, -0.20609202980995178, 0.04594505950808525, -0.1372455507516861, 0.24201151728630066, 0.14843516051769257, -0.11337994039058685 };
static const float FC_B[1] = { 0.07093770802021027 };
static const float QX_IH_SCALES[1] = { 0.01864845f };
static const float QX_HH_SCALES[1] = { 0.00636800f };

#endif /* MODEL_INT8_H */

